Language model created by QuickLM on Fri Mar 29 19:56:23 EDT 2013
Copyright (c) 1996-2010 Carnegie Mellon University and Alexander I. Rudnicky

The model is in standard ARPA format, designed by Doug Paul while he was at MITRE.

The code that was used to produce this language model is available in Open Source.
Please visit http://www.speech.cs.cmu.edu/tools/ for more information

The (fixed) discount mass is 0.5. The backoffs are computed using the ratio method.
This model based on a corpus of 39 sentences and 58 words

\data\
ngram 1=58
ngram 2=96
ngram 3=58

\1-grams:
-0.8435 </s> -0.3010
-0.8435 <s> -0.2319
-2.4346 AMAZON -0.2994
-2.4346 BACK -0.2338
-2.4346 BACKWARD -0.2338
-2.4346 BOOKS -0.2338
-2.4346 BROWSER -0.2338
-2.4346 BUY -0.2994
-2.4346 CLICK -0.2338
-2.4346 CLOSE -0.2994
-2.4346 CONNECT -0.2338
-2.4346 COOL -0.2338
-2.4346 DISCONNECT -0.2338
-2.4346 DOWN -0.2338
-2.4346 END -0.2338
-2.4346 FORWARD -0.2338
-2.4346 GO -0.2994
-2.4346 GRAB -0.2994
-2.4346 HOME -0.2978
-2.4346 IT -0.2338
-2.4346 KAY -0.2338
-2.4346 KILL -0.2994
-2.4346 LEFT -0.2338
-2.4346 NETWORK -0.2994
-2.4346 NETWORKING -0.2338
-2.4346 NEXT -0.2994
-2.4346 OFF -0.2338
-2.4346 ON -0.2338
-2.1335 OPEN -0.2319
-2.4346 OUT -0.2994
-2.4346 PAGE -0.2338
-2.4346 POWER -0.2994
-2.4346 PRESS -0.2338
-2.4346 PREVIOUS -0.2338
-2.4346 PRIOR -0.2338
-2.4346 READ -0.2994
-2.4346 REBOOT -0.2338
-2.4346 RIGHT -0.2338
-2.4346 RUN -0.2338
-2.4346 SAVER -0.2338
-2.1335 SCREEN -0.2319
-2.4346 SCREENIE -0.2338
-2.4346 SHUT -0.2338
-2.4346 START -0.2994
-2.4346 STORE -0.2338
-2.4346 TAKE -0.2338
-2.4346 TAP -0.2338
-2.4346 TERM -0.2338
-2.4346 TERMINAL -0.2338
-2.4346 TEXT -0.2338
-2.4346 THAT -0.2338
-2.4346 TIME -0.2338
-2.4346 UP -0.2338
-2.4346 U_S_B -0.2994
-2.4346 WEB -0.2994
-2.4346 WIDE -0.2994
-2.4346 WORLD -0.2994
-2.4346 W_W_W -0.2338

\2-grams:
-1.8921 <s> BACK 0.0000
-1.8921 <s> BACKWARD 0.0000
-1.8921 <s> BUY 0.0000
-1.8921 <s> CLICK 0.0000
-1.8921 <s> CLOSE 0.0000
-1.8921 <s> CONNECT 0.0000
-1.8921 <s> COOL 0.0000
-1.8921 <s> DISCONNECT 0.0000
-1.8921 <s> DOWN 0.0000
-1.8921 <s> END 0.0000
-1.8921 <s> FORWARD 0.0000
-1.8921 <s> GO 0.0000
-1.8921 <s> GRAB 0.0000
-1.8921 <s> KAY 0.0000
-1.8921 <s> KILL 0.0000
-1.8921 <s> LEFT 0.0000
-1.8921 <s> NETWORK 0.0000
-1.8921 <s> NEXT 0.0000
-1.8921 <s> ON 0.0000
-1.5911 <s> OPEN 0.0000
-1.8921 <s> POWER 0.0000
-1.8921 <s> PRESS 0.0000
-1.8921 <s> PREVIOUS 0.0000
-1.8921 <s> PRIOR 0.0000
-1.8921 <s> READ 0.0000
-1.8921 <s> REBOOT 0.0000
-1.8921 <s> RIGHT 0.0000
-1.8921 <s> RUN 0.0000
-1.8921 <s> SCREEN -0.1761
-1.8921 <s> SHUT 0.0000
-1.8921 <s> START 0.0000
-1.8921 <s> TAKE 0.0000
-1.8921 <s> TAP 0.0000
-1.8921 <s> TERM 0.0000
-1.8921 <s> TERMINAL 0.0000
-1.8921 <s> TIME 0.0000
-1.8921 <s> WORLD 0.0000
-1.8921 <s> W_W_W 0.0000
-0.3010 AMAZON STORE 0.0000
-0.3010 BACK </s> -0.3010
-0.3010 BACKWARD </s> -0.3010
-0.3010 BOOKS </s> -0.3010
-0.3010 BROWSER </s> -0.3010
-0.3010 BUY BOOKS 0.0000
-0.3010 CLICK </s> -0.3010
-0.3010 CLOSE THAT 0.0000
-0.3010 CONNECT </s> -0.3010
-0.3010 COOL </s> -0.3010
-0.3010 DISCONNECT </s> -0.3010
-0.3010 DOWN </s> -0.3010
-0.3010 END </s> -0.3010
-0.3010 FORWARD </s> -0.3010
-0.3010 GO HOME 0.0000
-0.3010 GRAB SCREENIE 0.0000
-0.3010 HOME SCREEN -0.1761
-0.3010 IT </s> -0.3010
-0.3010 KAY </s> -0.3010
-0.3010 KILL IT 0.0000
-0.3010 LEFT </s> -0.3010
-0.3010 NETWORK UP 0.0000
-0.3010 NETWORKING </s> -0.3010
-0.3010 NEXT PAGE 0.0000
-0.3010 OFF </s> -0.3010
-0.3010 ON </s> -0.3010
-0.6021 OPEN </s> -0.3010
-0.6021 OPEN AMAZON 0.0000
-0.3010 OUT TEXT 0.0000
-0.3010 PAGE </s> -0.3010
-0.3010 POWER OFF 0.0000
-0.3010 PRESS </s> -0.3010
-0.3010 PREVIOUS </s> -0.3010
-0.3010 PRIOR </s> -0.3010
-0.3010 READ OUT 0.0000
-0.3010 REBOOT </s> -0.3010
-0.3010 RIGHT </s> -0.3010
-0.3010 RUN </s> -0.3010
-0.3010 SAVER </s> -0.3010
-0.6021 SCREEN </s> -0.3010
-0.6021 SCREEN SAVER 0.0000
-0.3010 SCREENIE </s> -0.3010
-0.3010 SHUT </s> -0.3010
-0.3010 START U_S_B 0.0000
-0.3010 STORE </s> -0.3010
-0.3010 TAKE </s> -0.3010
-0.3010 TAP </s> -0.3010
-0.3010 TERM </s> -0.3010
-0.3010 TERMINAL </s> -0.3010
-0.3010 TEXT </s> -0.3010
-0.3010 THAT </s> -0.3010
-0.3010 TIME </s> -0.3010
-0.3010 UP </s> -0.3010
-0.3010 U_S_B NETWORKING 0.0000
-0.3010 WEB BROWSER 0.0000
-0.3010 WIDE WEB 0.0000
-0.3010 WORLD WIDE 0.0000
-0.3010 W_W_W </s> -0.3010

\3-grams:
-0.3010 <s> BACK </s>
-0.3010 <s> BACKWARD </s>
-0.3010 <s> BUY BOOKS
-0.3010 <s> CLICK </s>
-0.3010 <s> CLOSE THAT
-0.3010 <s> CONNECT </s>
-0.3010 <s> COOL </s>
-0.3010 <s> DISCONNECT </s>
-0.3010 <s> DOWN </s>
-0.3010 <s> END </s>
-0.3010 <s> FORWARD </s>
-0.3010 <s> GO HOME
-0.3010 <s> GRAB SCREENIE
-0.3010 <s> KAY </s>
-0.3010 <s> KILL IT
-0.3010 <s> LEFT </s>
-0.3010 <s> NETWORK UP
-0.3010 <s> NEXT PAGE
-0.3010 <s> ON </s>
-0.6021 <s> OPEN </s>
-0.6021 <s> OPEN AMAZON
-0.3010 <s> POWER OFF
-0.3010 <s> PRESS </s>
-0.3010 <s> PREVIOUS </s>
-0.3010 <s> PRIOR </s>
-0.3010 <s> READ OUT
-0.3010 <s> REBOOT </s>
-0.3010 <s> RIGHT </s>
-0.3010 <s> RUN </s>
-0.3010 <s> SCREEN SAVER
-0.3010 <s> SHUT </s>
-0.3010 <s> START U_S_B
-0.3010 <s> TAKE </s>
-0.3010 <s> TAP </s>
-0.3010 <s> TERM </s>
-0.3010 <s> TERMINAL </s>
-0.3010 <s> TIME </s>
-0.3010 <s> WORLD WIDE
-0.3010 <s> W_W_W </s>
-0.3010 AMAZON STORE </s>
-0.3010 BUY BOOKS </s>
-0.3010 CLOSE THAT </s>
-0.3010 GO HOME SCREEN
-0.3010 GRAB SCREENIE </s>
-0.3010 HOME SCREEN </s>
-0.3010 KILL IT </s>
-0.3010 NETWORK UP </s>
-0.3010 NEXT PAGE </s>
-0.3010 OPEN AMAZON STORE
-0.3010 OUT TEXT </s>
-0.3010 POWER OFF </s>
-0.3010 READ OUT TEXT
-0.3010 SCREEN SAVER </s>
-0.3010 START U_S_B NETWORKING
-0.3010 U_S_B NETWORKING </s>
-0.3010 WEB BROWSER </s>
-0.3010 WIDE WEB BROWSER
-0.3010 WORLD WIDE WEB

\end\
